# Created by Octave 4.2.1, Sat Jan 20 11:22:50 2018 GMT <unknown@unknown>
# name: theta
# type: matrix
# rows: 25
# columns: 401
 0.05719224954340626 0.01084444528546841 0.01126145893451278 0.0102877129486883 0.01154788521413097 0.011125230014428 0.01282332395380995 0.01039404893204585 0.01119245887729736 0.01060787845451891 0.01110951803135987 0.01160532195912659 0.01147034809087875 0.01146978932114464 0.01218071800898063 0.01093651534413065 0.01097370960005881 0.01243315118492544 0.01113453824615354 0.01255417227591025 0.0123210575530269 0.01232864654328691 0.01298884087354408 0.01096805906879593 0.01061802267318831 0.01170651946635149 0.01131758456907774 0.01106005978360263 0.01108070249697331 0.01226088029013967 0.01038934080312933 0.0119348983441264 0.01128626090500891 0.01270130387679277 0.01162264007852295 0.01054725478192041 0.01283807840571109 0.01183771742475651 0.01263333732001953 0.0112693829192574 0.01140033477240831 0.01053779711871718 0.01031300806184681 0.01297056029790169 0.01160776141772885 0.0108242212072558 0.01290552186139114 0.01254593531025384 0.01139755623238526 0.01179442411818593 0.01287621360906638 0.01123093977348215 0.01174626500825783 0.01207835888691418 0.01077278912880588 0.01194869808731878 0.01087743623456035 0.01137761388736052 0.01173096973712478 0.01139557774754132 0.01097903410475092 0.01247620153037107 0.01121118174723259 0.01220040995580646 0.01250156267165555 0.01116048794430975 0.01102535944226619 0.01222165771923903 0.011098452910353 0.01114805218711116 0.01132882104550031 0.01048166657051611 0.01116612389664862 0.01068911641925421 0.009408167934732734 0.009318167792176361 0.008276177743121737 0.005656922591324647 0.004197907497464078 0.00980887057388473 0.0111390538702619 0.01181200623946509 0.01048185986693672 0.01182837819807413 0.009024387717494227 0.009243786210012307 0.006371586951896217 0.006658104938156075 0.01030642856200383 0.01002905756206544 0.01293522360920082 0.01198636543043834 0.009635374691979885 0.01110447035671366 0.005993599155774818 0.004472444881391343 0.004442822813838681 -0.002504155732922607 -4.059996554235074e-005 0.004862569648837427 0.01222799156577751 0.01183879771524621 0.01064230628578323 0.005039705539056691 0.003035409107995317 0.0004823520027293168 0.0001151283679498215 0.001689830354833204 0.003552880978498407 0.004841153076001826 0.008378380492984894 0.009040342008773581 0.007452551594719067 0.005447572616599566 0.007293832528035982 0.01014670531263226 0.002905429339998425 -0.003142744668756737 0.00553413943775462 0.00510044799650696 0.008411495685456368 0.01023641268114535 0.001280890796662269 -0.0007877897978894665 2.958570044159989e-005 -0.001583983134761186 -0.003243709484942799 -0.002385967110838332 -0.001467417053856173 -0.003786632159645239 -0.001211478411154357 0.004969312271729796 0.002440578744540036 0.006117825427428338 0.01178368736927328 0.009559609253105341 0.008482273358147014 0.0007542532275515503 0.0008473555177172627 0.006402860611588 0.00673046443271218 0.01158522599867698 0.002707683892498675 0.002601201777637134 0.009640298009793069 0.005418744627880206 0.005082886374150385 0.004064497234145081 -0.004062318058707691 -0.003648325458347261 -0.007084254980488694 0.001492813267210409 0.004083720370182699 0.007851804038010085 0.008492064114799903 0.006419697581116942 0.01112800518503291 0.003877368235773011 0.002919610739252725 0.01126660146146379 0.01171026747531551 0.009498000059507473 0.001394613360657778 0.008856204793926721 0.0106785759495101 0.006391957725787861 0.009367034053064334 0.01215471592622841 0.005827354278821088 -0.002327267917730269 0.005877527524649887 0.01032814649684872 0.007677226867736571 0.009828460212221387 0.008769392500333411 0.01186562787392338 0.01550272549863254 0.005871104470881973 0.0006684727365865333 0.007803823164971962 0.01015670802096213 0.007298736465896031 0.005487517580445626 0.01591992240669123 0.02014393870637549 0.01545909047326117 0.01362425409632767 0.01417496993273826 0.00633234313866375 0.004055497458441076 0.01177538532107719 0.01042223257088548 0.009644780933440844 0.01042291839944737 0.01776290495923411 0.01618165308079013 0.01657874430131032 0.0007565896230825686 0.003384165804665863 0.007905811841401298 0.008040526017424545 0.006791862436225235 0.003790468144016366 0.007618212170866817 0.01373413852244131 0.009811888079798983 0.007807726975335357 0.009989018745977558 0.004379867783104169 0.002439020825415024 0.004631727002627954 0.005649972583370686 0.01039811842400614 0.01040385965357817 0.008791586837488291 0.008668080019988464 0.01018066264269478 -0.003059871393557452 0.0003807933619033696 0.01168620284317312 0.01349571932082622 0.01005050463519982 0.008971824608235134 0.01111821221057606 0.01524987513905582 0.009671050401504979 0.01245696001488763 0.007755094161561357 0.0131384229037067 0.01042567094797519 0.00957727655988634 0.0106499698306919 0.01474209705409792 0.01209178418958857 0.01382847841751458 0.01349029699516353 0.01448086790209549 0.005459936375531779 0.01099891006320199 0.01258697624040541 0.01313224436136165 0.01035471014299635 0.008338605461237734 0.01125435314291075 0.01541036464794469 0.01827519124804566 0.01572756937392411 0.01388726095711303 0.009564862450669512 0.008830329459750876 0.008754315834476136 0.007117328753714239 0.004013829292568891 0.004265664644334486 0.003639970808624571 0.005107733004392817 0.008135677552385973 0.007595992966427878 0.007523126448368822 0.01440699685368084 0.01281710577065124 0.01243350386122379 0.009394466328421574 0.006288741220212369 0.003136852563336508 0.002883699857513438 0.005623680573083762 0.001055563146726214 0.005751274928848664 0.00551221247043952 0.004489187669694953 0.008566567059594878 0.007639444947297899 0.00650522282244523 0.006638985968190684 0.01156497358330881 0.009742191230593947 0.007031577651496851 0.008774938991264513 0.01692745973055433 0.014718296240124 0.01251504393429782 0.009666659067628907 0.00160091422922251 0.003386753898030535 0.004138122719732261 0.009614719225616448 0.01038777461165061 0.01148545465770529 0.01116886117854842 0.01310202265194277 0.01370497193776338 0.01237361504200909 0.00699820847874002 0.007048962059729086 0.006668706593801649 0.003157377976278746 0.004364898338229734 0.009273348255562874 0.01524673352118404 0.01280410019968057 0.01227880569883274 0.01092716933741524 0.004893773231591237 0.003145770487993505 0.006234683510350615 0.01196086727912817 0.01158098733696924 0.01170763932215652 0.01023282619579269 0.01264994949371467 0.011273519213284 0.01072420582712197 0.01049634175648044 0.01109044940093753 0.005568962968037127 0.005353237154168312 0.002949499594277536 0.008467152497168928 0.01242856971944162 0.01087109002911467 0.01082578732764316 0.01039997575606864 0.003428241416599071 0.005361041721480221 0.005833881323685178 0.009476223068826778 0.008151752006432901 0.009840817331997643 0.008828382038558305 0.01009147466849915 0.008072045890271693 0.01046085243562191 0.01063437741470158 0.006114547436199975 0.007894474736076199 4.647073121820443e-005 0.007029553634678748 0.009287354708700089 0.01198277583540397 0.01031042201486488 0.01268905173189271 0.01242189884875026 0.00929236770885461 0.002760445400059761 0.002886590893409578 0.005943940225587027 0.007053778424795832 0.006314780462620156 0.006520733685141915 0.005929372897903402 0.005980496568048943 0.009285801835860299 0.007608998190937432 0.007893336841127007 0.002865081241756734 0.007228740139296076 0.008961967232811799 0.01256096123219256 0.01198928206892102 0.01033236969037383 0.01086308216501441 0.0119344959258997 0.01071889024839591 0.01179695455028538 0.01035307262494433 0.005247333879921862 0.006753151830599919 0.00585512961077195 0.007638554557273382 0.007420330269019285 0.006344106598305963 0.006899471471144635 0.007005613697292527 0.006815917526185508 0.009185673081566453 0.008287860476521509 0.01088054094074053 0.01127923265673131 0.01036093072107938 0.01146843357475991 0.01254360010936842 0.01299947766759776 0.01147499870283672 0.01098316644039726 0.01292295624763603 0.01248181146200523 0.01239224595278518 0.01288432736589995 0.01291282893859656 0.01215165154750046 0.01280180010567549 0.0105961478341159 0.01091469909600349 0.01298739646938137 0.01148085552500518 0.01218253374043169 0.01122814362517691 0.01245573071392282 0.01268154603328446 0.0105931855601276
 0.1029610962106327 -0.005398680571436288 -0.004637658975232471 -0.00533274779260471 -0.003079624562092573 -0.003625338715295245 -0.005032153405584589 -0.003968846253030077 -0.005422689397134304 -0.005393995363835246 -0.003494256895076726 -0.005185178611593747 -0.003794135764314386 -0.003427568655494892 -0.004802326686066083 -0.004403710507265813 -0.003696478559010205 -0.003466051332203615 -0.003119654322687219 -0.005206384939770195 -0.004313010035402073 -0.004797819937107864 -0.004586964305046681 -0.003045549187210005 -0.004323632575634396 -0.00517336193625049 -0.00298359876885098 -0.003807737354770802 -0.005490305726948825 -0.004299490186866956 -0.005685710317427758 -0.003531609887025768 -0.003996294086236305 -0.003904679451249481 -0.003957969675137152 -0.003347333225779342 -0.005286375762945378 -0.003955822367521756 -0.005735447577432076 -0.003663965088069642 -0.004907880744921857 -0.003670425273470713 -0.003488678877020346 -0.004534326861812286 -0.003281892525760577 -0.005674647202083869 -0.005453191838510943 -0.005259289476563396 -0.004018878694929414 -0.004711156004987695 -0.003502269354174152 -0.005301167506593 -0.0046243236660948 -0.003617574426967292 -0.003385803031136293 -0.005250526738242375 -0.00306701246990065 -0.003409260519877098 -0.004120787153633103 -0.004743127878160481 -0.002982695926687488 -0.004705599802545118 -0.003960682935829856 -0.004903616981487577 -0.005224903334617969 -0.003146616809483704 -0.004332083822149835 -0.005552997395672932 -0.005728049405315863 -0.005394840418627012 -0.003302943904919328 -0.00384213636706236 -0.005261696040435142 -0.003740805500137428 0.001854249576473475 0.001457655493679952 0.02236616289694323 0.01737321556746457 0.006907660675411219 0.02162788863361581 -0.003310811507579898 -0.005442664700453656 -0.005725970990104566 -0.00539451254849456 0.02056778149462633 0.02221198261973249 0.01865082188060547 0.01879017699635782 0.02304119438183082 0.02113879365167035 -0.005249421942455341 -0.005414732237110888 0.02076928498978853 0.0003443604275320442 0.04894705222602105 0.03988743726009052 0.0001189356638587427 0.004130937781017486 0.0401887478015862 0.05628946677937708 -0.003292787870941109 -0.004777410468075574 -0.003873082377522818 0.06349800643897437 0.06420295907780499 0.09495355268785824 0.06015098639800413 0.06473937527832548 0.05096856173138668 0.06124425197458512 0.051683120935491 0.022844484725389 0.05381997878395362 0.09063114641959041 0.04225274383627665 -0.03145792865677426 -0.0490929324649106 -0.02733607647858382 -0.04317899802730569 0.05486383501124593 0.05365380615042625 -0.005556784833959026 0.05508501245804023 0.04660607336756244 -0.03116283634157162 -0.03502000243652313 -0.01709313697715156 0.006818496447007417 0.01140294207893865 -0.0003025482507241343 0.001146092642628879 0.01819306462316549 0.08208149519483655 0.06821436149355392 -0.001576498284873714 -0.002214064095430761 -0.07794934102956856 -0.09110855293842293 -0.08382202290558338 0.04485787053552391 0.0524399660548579 0.002412021078098576 0.03971634344559753 -0.03882559445556451 -0.007774549217518825 -0.06361413660684249 -0.06557079926998097 -0.01977106934045673 -0.04338793427780841 -0.1006284390657674 0.01192668618749898 0.05002813088557889 0.08236608614933796 0.02525641001552066 0.02473816651802609 0.02336646747141836 -0.01178725245930098 -0.02310919997584763 -0.0070345023415601 0.006798329268184725 0.04403986875050833 0.02802266632265774 0.08226173527387853 -0.03993336663717668 -0.01855414301802936 -0.02389718638437998 -0.006600958008098227 0.01978336846458661 0.00934834448560601 0.0516171361107773 0.007624283415080301 0.05257361650123005 0.08720379661167113 0.02858730872793806 0.03286978414457535 -0.008852280990286142 -0.02155662612195896 -0.04749467436117581 -0.0210183218404262 0.07911919335186013 0.0420157441695107 0.06798268308580496 0.1197695212539976 -0.0325984451950524 -0.04133206031961485 -0.02173081469138025 -0.05019145278816278 -0.02674499187060134 0.05610884834793695 0.05087820065054628 0.02094630614711871 0.00502363743316176 0.08885189736495484 0.05536488755617486 0.01418221309340796 0.01409851375897371 -0.008012797857615061 -0.03774931946894416 -0.03806046957618119 0.09853607859331233 0.04010213719043411 0.02691257730396674 0.1073136579332118 0.06191906284015426 0.0856139444810234 0.08024874239978208 0.0794922736450914 0.0546977153163503 0.0436795803590674 0.03531795616273167 0.03595097363701514 0.05466292846829211 0.09193365184668792 0.08795483376276672 0.08111169023112225 0.0726549049359683 0.07505998514536107 0.02015798938248152 0.03975977334836403 0.08060815625075676 0.004562270999076505 -0.01392768704808841 0.02027702540158176 -0.03232524256891245 0.009875013948261022 0.0004860261578082091 -0.02896338726125778 -0.04179289873933702 -0.06071149778438326 -0.03205268099560996 -0.005153121505154059 -0.01043097824537416 -0.02958692097226353 -0.0453409980646672 -0.04200922006128247 -0.01535702511626651 -0.07090632177285518 -0.08016115415196585 -0.05625374595271854 0.003348411945616338 0.005801614031712535 -0.004255332760235798 0.02160409801805274 -0.04210438116245522 0.009300757061842553 -0.02202330388611028 -0.007609517978767672 0.05744185993633136 0.04356083337481034 0.05131792439861136 -0.0545683588035656 -0.04945509911795024 -0.03943326074723456 -0.03867606104320704 -0.03703684800372335 -0.03781668535951188 -0.03699776641644274 -0.06267012464722131 -0.01316198798516328 0.005560127710656336 -0.003963158522149707 -0.0009588788692728806 -0.02124686283787783 -0.004696069100491852 0.005385869218229147 0.02715503621864878 0.02920060391530763 0.02412150044868836 0.02922128088888783 -0.02209071566808286 -0.03756625418657993 -0.03053553835533869 -0.02542634840454472 -0.03746451354743276 -0.03801758484607314 -0.02410531358237722 -0.01374027432266075 -0.02725627643303474 -0.01246690774669659 0.0141174321699731 0.004900676639385652 -0.004663677463721807 -0.02280506463411996 -0.03685339346608639 -0.01583969988326064 -0.01715114749981818 -0.007942560761146009 -0.00741180971383491 -0.003928662773280897 -0.01357593773163415 -0.0126861182442713 -0.01449887315175061 -0.01837088215419188 -0.01808810776242131 -0.01696118721121529 -0.02186041704663711 -0.02672840199192702 -0.02768012922221389 -0.01239757947642019 0.01532933613725911 -0.002986273568156653 -0.003827636285663083 -0.003208927556527711 -0.01727508003012363 -0.01656111303748112 -0.0125752378622487 -0.003691919533482911 -0.005457716423742837 -0.004524943271722659 -0.004492451841621112 -0.004972120601813867 -0.007838129483275847 -0.008851629869717792 -0.009375296242781739 -0.008783437018767449 -0.01676876047327554 -0.02076786462323528 -0.02193665090508226 -0.01211842437625122 -0.004665488395315191 -0.003437035188774248 -0.004741492239540183 -0.0047670133635531 -0.01740667223798892 -0.01677050458268512 -0.01180047751465839 -0.009039745262631706 -0.008793565362537675 -0.008530927053573834 -0.008446743544866412 -0.007927077517381082 -0.008897190042684628 -0.006986928555646624 -0.008148946666629079 -0.01227650243145259 -0.01223082662959507 -0.01939456729318441 -0.01329865337499652 -0.007997829059435602 -0.005083222569679208 -0.003864275099848829 -0.003923364606674727 -0.004702889335119835 -0.007143660724441975 -0.01560874892469213 -0.01581959418910149 -0.01271577634801603 -0.013181209878189 -0.01314977472648352 -0.01057128558543567 -0.01238428469592662 -0.01060766517940699 -0.008223928895058673 -0.01187489670516957 -0.01129655067732939 -0.0163313163054197 -0.01142447012383096 -0.009477275477936059 -0.004416326355916374 -0.004683740865667954 -0.005170615049883417 -0.004851507154552363 -0.003373418043350401 -0.004804333299747261 -0.004275143736912759 -0.009732159853170197 -0.01171040587582385 -0.01340903655802631 -0.01141233913429624 -0.0126936613371139 -0.01392138839043974 -0.01241639667802457 -0.01220676589146397 -0.01312974874928207 -0.01302602869416917 -0.00830779376454507 -0.007403550164384879 -0.003929356463529338 -0.004851639460472126 -0.003745539661674187 -0.00302873325340265 -0.005545459942340643 -0.004465705807391453 -0.003574204632961191 -0.004831239217253655 -0.005051178853818883 -0.003389845338014001 -0.00501707984632862 -0.004121873842237602 -0.005505996858849545 -0.004513356282483617 -0.0054603133785512 -0.005723537968105551 -0.003448876982868248 -0.005257598680416944 -0.003429917497084802 -0.005157017072281545 -0.004431578891422039 -0.00418682314071852 -0.00326266969749478 -0.003671837110560267
 0.09888959153277248 0.01169135862360905 0.01253105964542749 0.01161214397664261 0.01313340599794204 0.01147596404916629 0.01307881830404516 0.01209070482654184 0.01249341889941348 0.01127848760251352 0.01250988616823839 0.01285393139428844 0.01155093145087522 0.01308863562725898 0.01060228473012981 0.01166658118013363 0.01067504041578083 0.01297525813146829 0.01118720180035373 0.01221806484460007 0.01078239449424211 0.01217647425642161 0.01140983574527844 0.01212754989994518 0.01086562967995778 0.01090497864616091 0.01110099734048266 0.01255585187456243 0.01124526573555949 0.01128995178179882 0.01175920720905046 0.01224914648179452 0.01262447493740242 0.01141801211890702 0.01129214380479626 0.01128842417657457 0.01261189637658677 0.01230531230058031 0.0128613830557457 0.01166064012526791 0.01251306883847349 0.01108672115657535 0.01110903590255974 0.01314527343894846 0.01056361414331039 0.01191236384016813 0.01274138120946115 0.01283165682023849 0.01267660373831905 0.01254350859962423 0.01120228250246505 0.01103702007632854 0.01090443603034875 0.01091224091293197 0.01103279522400429 0.01147255160389008 0.01270062581456921 0.01245652439450934 0.01163743447250087 0.01255297932636069 0.01117077207793961 0.01138988671651987 0.0129796103321 0.01183852589406922 0.0116103965294717 0.01175138740974815 0.01207399959179121 0.01108992035976164 0.01104058978072849 0.01220680646253627 0.01320342250159798 0.01088258289041982 0.01134083918442485 0.01317228310166982 0.01017605547716693 0.009194862226817957 0.009784072863147782 0.00706624880464278 0.006966218586620421 0.009551563503860962 0.01172414934564211 0.01295342366054069 0.01303564867567666 0.01066082223360907 0.008597719746491091 0.01055448603949427 0.007523412311350547 0.007524668889681573 0.01112215145754468 0.008753477981411927 0.01241190415280036 0.01198223270650685 0.009094059011668633 0.009256866399595184 0.006111108770491229 0.005197441543685209 0.00560999326026586 0.002285726857549453 0.003982599949179644 0.006333571758436539 0.01097099900742658 0.01191784780706049 0.01201978489906911 0.008882327781724325 0.004761771534990073 0.003096586884377815 0.003685648954591326 0.005619469087569364 0.004891946147573883 0.00620286543332504 0.008471236887238685 0.01118924360093664 0.007948941595548195 0.006631276796857848 0.007710754381297771 0.01043701973602509 0.004512497501584367 0.0005751420472310607 0.005561219689623681 0.006481885838875059 0.008687422400774065 0.01209945008404674 0.00552843729308119 0.002261858063260231 0.004254997206585599 0.002269391835585209 0.001394184685063655 0.002014038336342948 0.003854925269932158 -3.029357755415769e-005 0.00150071253158983 0.004497197609284202 0.004682806582962797 0.008296796205908416 0.009782746252664173 0.01146801691856239 0.008677389441692045 0.002454951970148815 0.003677143404951367 0.007143909419174328 0.008822106477715636 0.01239377503462014 0.006731689439937188 0.004094376275640769 0.008895226970686294 0.004894880925960046 0.003834922289082402 0.005054176451938275 -0.0006384642693109763 -0.0006683462009174451 -0.003494202249416414 0.00351215835748664 0.004655349762072679 0.006179634270166167 0.006393071711932752 0.007425654212227181 0.009123741119738871 0.003657586559983778 0.002494366367844853 0.01180433262104863 0.01191432967734504 0.009307320823262528 0.004119494532170567 0.00821195727579394 0.01035068927377099 0.005115062240810712 0.006976644186985271 0.008954982909237286 0.00654350121751292 0.0006553955804762449 0.007714052315309776 0.009348627987685515 0.005458827983202374 0.008455756950055116 0.008744388193570598 0.009649524924128124 0.01382091199532154 0.004503642559261172 0.000326212140543886 0.006521676106602494 0.01077326852879127 0.007029867657472327 0.005344725997300183 0.01361380617199394 0.01692444842907476 0.0141243337010411 0.01148090702427538 0.01307576689721009 0.005691098863212061 0.006304458210232601 0.009083038266426473 0.009003299534498917 0.006927322399120473 0.008973791703369389 0.01429829125977538 0.01639386917673701 0.01576930730492386 0.001138988079385547 0.005232088609666743 0.006893266643526009 0.008008879713723004 0.008758460982875211 0.002157990876422163 0.008110968782190671 0.01220087172331684 0.01100025700694983 0.01071527255030953 0.0109208256159396 0.007663277199373434 0.004194602635972559 0.008148551401898487 0.005558585674901622 0.009353524236458763 0.007867161578431791 0.00857243283515351 0.01107919281740194 0.008924669325553617 3.868749652880808e-005 0.0009025713833632329 0.01006254762777349 0.01385733667987041 0.01245538694835625 0.007201103200926711 0.01093528899947845 0.01563122106690239 0.01108645029410067 0.01388118597330674 0.009473922208462424 0.01250786003785873 0.01168468045314142 0.01167451555059207 0.01108925935546709 0.0132095151645138 0.01083903219895662 0.01426670422742209 0.01413331695793424 0.01181662906962232 0.006826188999739093 0.007889294085581774 0.01213559009823568 0.01408757591879554 0.01060076327100888 0.01059206419596732 0.01159128252893566 0.01447674533608792 0.01693943576438036 0.0155371263016119 0.0129508808399985 0.01132846363149542 0.008562953487252554 0.009290259515803218 0.009007793113146634 0.004665691634560338 0.004675101797160539 0.004224461537593467 0.005993330764615082 0.005456839258513822 0.008043044352566605 0.009053936355582964 0.0141055223040052 0.01203676212214089 0.01334065119873938 0.01282268527663884 0.00911469129174188 0.00575397189262967 0.005196881704654932 0.006309184011010575 0.005736614873486265 0.00739958119073493 0.008647059245505241 0.006737988838818013 0.008308930621784312 0.009604248664630189 0.008374175633462289 0.008074727564675544 0.01118268614117545 0.01067812578157613 0.009401312401245081 0.01073586532568317 0.01317860019332317 0.01413276637700779 0.01148420429193955 0.01081266158200822 0.004844363000628086 0.005046011092693811 0.007175691371136381 0.009123592069149027 0.01085817034734124 0.01245375674146291 0.01048638856750686 0.01247835001103981 0.01220490655696233 0.01351555474543914 0.009782059269646452 0.009775799717394909 0.006616563353253408 0.004652612125644052 0.008614906418093824 0.01147566564344506 0.01384144954054474 0.0129773544045801 0.01301768867732133 0.01314698661850679 0.005178644786431622 0.005048515094614717 0.008308744096592885 0.0108467221358 0.01103259511919613 0.01170944763105064 0.01147289328327756 0.01145584971132457 0.01089035429556213 0.01105901738148198 0.01090706448876019 0.01258824363858506 0.008951666123590087 0.005690319590977403 0.007543352001029935 0.01072684815036086 0.01284671619141552 0.01161116068049492 0.01160063665096829 0.01199842751358277 0.005343545162958245 0.00656794946258242 0.008732066405926605 0.01145325517624119 0.01142047888318361 0.01048182475666279 0.009375376266558455 0.01086865042414389 0.01150772820357728 0.009916948481563813 0.01140941045010783 0.007431684504895572 0.009339835818080571 0.003882784711194797 0.008311057131570666 0.01081138498497863 0.01126741433087233 0.01266084065871606 0.01064544519079802 0.01192117801593089 0.01013971113748876 0.004937752654387328 0.004927983315746013 0.009357503995357157 0.008428249322447264 0.009009605679795958 0.008661763995460646 0.007406814880452099 0.009116804670012021 0.01068442714176542 0.008980424545241389 0.00747570727404896 0.006433568115527671 0.007749918037599388 0.008591263031511701 0.01163256108696543 0.01063978907765679 0.01147388585474511 0.01287585961482024 0.01223925210204491 0.0117780149487449 0.01087222476313767 0.01003829954130474 0.007563607676979139 0.007189929354111864 0.00840825429158772 0.008793297934784838 0.008816731322350889 0.00685277898040705 0.006904024585558543 0.00892756487205862 0.008944071242329371 0.01121341221618679 0.01066370830051021 0.01248463041287293 0.01110460232142385 0.01070354171775553 0.01261153285321993 0.01213439663435059 0.01137048309324963 0.01211483578232348 0.01161736716421112 0.01286496148165937 0.01100546212688012 0.01179106361318357 0.01272412144255747 0.01103788806608541 0.0133103106343271 0.01164680461598819 0.01059660552647524 0.01300155641220108 0.01188963882890994 0.0120861197173348 0.01091808768378214 0.0109756850398525 0.01134889437846385 0.01251799569921607 0.01251088363879208
 0.1376818916994745 0.01057882608080646 0.01050629964429017 0.01299402190842142 0.01155029125189098 0.01227360957261634 0.01112787470051559 0.01068440550164469 0.01233972844093299 0.0112957573135351 0.01265229486897413 0.01162156687349208 0.01200041995780653 0.01050635808742867 0.01197366111864442 0.01210344971543175 0.01098469888344594 0.01144942661997072 0.01104299809559825 0.01263741184197597 0.01322825331060028 0.01271055877943552 0.01051983391492683 0.01167553871780993 0.0109463523393949 0.0106920207221643 0.01214966959925315 0.01109027453849912 0.01277297233979525 0.0117210274044876 0.01123028709771498 0.01167394139619824 0.01281782864831762 0.01262112511319921 0.01182089247140304 0.01254287591001386 0.0107676809474761 0.0105831606270327 0.01072114478534648 0.01311534810899691 0.01220683034127728 0.01150484259865779 0.0115323898560609 0.01202614136362717 0.0113045518873205 0.0131613411660289 0.01236053507430894 0.01153040290136723 0.01143439895831111 0.01056518409050195 0.01057465802057839 0.01294220466253118 0.01118891330155104 0.01176028176476746 0.01142526605788202 0.01321900264125928 0.01132608158680234 0.01096214273232513 0.01243641223439808 0.01271149459389778 0.01134232562995111 0.01056774280293146 0.01124722198422562 0.01132939509211211 0.012915008103395 0.01291589747663697 0.01240630476318642 0.01299303938404364 0.01310479405911659 0.01253282563415831 0.01316402130030291 0.01139446189270838 0.01134112718472263 0.01222087552711865 0.009426389144714815 0.01014393102551532 0.009471511286655165 0.009491787218652219 0.007848658101034372 0.009681515219954728 0.01142839611257634 0.01059565569738113 0.01202870430922136 0.01270261655898578 0.01106150002514699 0.01166764150043801 0.008058643730168059 0.008983447509577263 0.01129449190406634 0.01032330294296348 0.01098823579797251 0.01172025477461966 0.009453413157172722 0.01083680955740155 0.007612289247037676 0.006750658613206061 0.007463203334471117 0.001893622107275992 0.004335836961143212 0.009054405779131573 0.01315673901571297 0.01101676917708842 0.01125124819474108 0.008874842620212035 0.004605127030174578 0.003342358675021532 0.003064377697951536 0.006525750398806371 0.004349784518272993 0.007666335828207526 0.00833147966566373 0.01085518279446341 0.008501799089163186 0.008048784968885236 0.008971108574547405 0.01055492282996001 0.005220552460317671 0.001078220958160967 0.006564788231197884 0.008458838201191175 0.01019794903823478 0.01246338536155096 0.006568466480842059 0.001825151236086064 0.002060999489957136 0.000904978278433782 0.002302620168338493 0.002257769515663526 0.004013677290812569 0.0006825422587281782 0.003191949220947268 0.004632657953873697 0.004623158793217885 0.006558977892423183 0.01104901829606 0.009572948647477408 0.007644656177843963 0.002241187346794158 0.004576982075615067 0.006136224792506056 0.009878316563915409 0.01071832811214244 0.004717010215868849 0.002093002634501601 0.007646144020458735 0.005001594869395941 0.005323211006899473 0.005621412417074021 0.001502189367040064 -0.0007216296399661898 -0.00126239820061947 0.002767081227739142 0.006511275515694804 0.008748366326199313 0.009585821300021904 0.009138058521862422 0.009139564144072946 0.005567023466827731 0.004494620184873915 0.01009954605988337 0.0105773393171351 0.009579664577950592 0.00426147856921652 0.007290585416140672 0.01105437850956832 0.008853304394634475 0.006804870682169388 0.01129389990686271 0.007540506230216506 0.0001387124260406338 0.005316453323884969 0.009451192942984023 0.009111906628562316 0.009407078460432381 0.0116446270256588 0.01081676350436185 0.01072827473679567 0.005719579624931842 0.004509752362696543 0.007517952040462194 0.01016781906752571 0.008100009073221861 0.006059788519243764 0.01046393824394644 0.01658497945722617 0.01224882531512682 0.01218096821996929 0.01304690185821302 0.006667562354065583 0.006796050579277839 0.009359993402215293 0.008375422353504792 0.009684278625922622 0.01093539327268034 0.01422254962618 0.01386347984758262 0.01290526616282408 0.005271678124579353 0.005916109261758313 0.007683516435217164 0.008347979213990709 0.01023712290158991 0.003255621330229993 0.008073067207585827 0.01126364687721514 0.009300919994721426 0.007846656440776157 0.00976424650345476 0.006742365082262697 0.005255686005350505 0.005053465446323426 0.006557005712815776 0.009631517479064447 0.009860198364237793 0.01052383960930099 0.008613052951573925 0.01007068741701275 0.001421383908405017 0.003109331601206957 0.009885109230531467 0.01360281121799566 0.01078723455495973 0.009622839114737916 0.009995729392654824 0.01307210317869628 0.007946854604020281 0.01173695407296204 0.009287054520647415 0.01179636086034146 0.01063376634354859 0.009926534646863491 0.01021350955139187 0.01202961914444306 0.008733913434471949 0.01225071499220089 0.01097218176972873 0.009041159128471619 0.005370643583918647 0.008544749305827734 0.01160191662116811 0.01260427656413844 0.01129282137933437 0.009279527488635669 0.01207885047225882 0.01411092833019143 0.01556377062925788 0.01398846299542853 0.01166390900233486 0.01114758607404122 0.008168008702766039 0.009943353166441939 0.007999970451607984 0.006154689798797134 0.004090141613668394 0.004061798836107991 0.005910784525517293 0.005140801983221224 0.006380936402799051 0.009457528864768484 0.01338567526973261 0.01090505932893157 0.01409649692457251 0.01055196032280756 0.00743190813203894 0.005977588997721673 0.006486240537112293 0.007320462625775652 0.006236521417871285 0.007609585905468757 0.007843322013389028 0.007479423462374958 0.007609951755467055 0.009667529096361755 0.00701245443107068 0.007045157084104302 0.009994301194863659 0.008390114675954489 0.009156177926031571 0.01096840880486812 0.01478197090395243 0.01408862370623345 0.01155864944597769 0.009436913497477536 0.005293046066196079 0.0055540874446865 0.006404661246155684 0.01088447945423564 0.01129654005697368 0.01207351752951865 0.01190223550140127 0.01131332852798423 0.01173146492841413 0.01317267620694988 0.009322359984465879 0.01000448843022188 0.00680448842900627 0.005860832083298665 0.008213353183822686 0.01132745790670332 0.01426475688371923 0.01272105206932471 0.01115528437695484 0.01098122213316395 0.0049931707292425 0.005221030209352645 0.008526255188360818 0.01321993858426551 0.01051168445253353 0.01220492370727362 0.01065165377382975 0.01143454524998308 0.01262919864963618 0.0105071609231537 0.01259416913175732 0.01229432120529432 0.008540212360050115 0.005347850872092406 0.005374888300511221 0.009101887317251247 0.01297651727146768 0.01155059408687945 0.01069733197661401 0.01289859380187506 0.006894040519799285 0.007324319948310965 0.00752660856748226 0.00905431534460311 0.008959033728241304 0.01022557944190421 0.009942200063562995 0.008843270581740495 0.01070846453652077 0.01033014672481099 0.009470424010136919 0.007440596380383245 0.008168837974006185 0.004090249969510702 0.009047685418364324 0.008893513352172996 0.01212685094839481 0.01257593306870914 0.01320857966233199 0.01058207813941276 0.01064117197951364 0.006594031048103448 0.005976926616808363 0.007073943186210244 0.006977381576755292 0.007106514667562396 0.008830434471413073 0.007560007267384141 0.008373874589869082 0.00882866702491643 0.00926948129904551 0.009424575364474061 0.005810343201765205 0.008487046617043532 0.009815346842311229 0.01185338532921388 0.01153534866093017 0.01165115032159324 0.01245750591558336 0.01222039089778324 0.01123019072696648 0.01115764739059212 0.00896168485213868 0.007551398259280479 0.00821784484827145 0.007324589133385281 0.008148775734657459 0.007446633016618282 0.007272534748589584 0.008947451364349799 0.008307264931006768 0.007026906852739512 0.008805121704933959 0.009214410035255751 0.01221169406175256 0.01063678208347772 0.01207087613162731 0.01251220237451555 0.01064076382196569 0.01234576700046646 0.01316424978920841 0.01275472145432789 0.01190989890585268 0.01320909453238895 0.01170976543583689 0.01236733557637409 0.01137536673892753 0.01102289328048321 0.0131771056589017 0.01102429812216334 0.01061812215008705 0.01140178433875461 0.01080065855049163 0.01203918868833832 0.01130834258873729 0.01064966754824733 0.01116270780220371 0.01079916210679978
 0.1071840200834863 0.006463121453372343 0.005316211076058997 0.006336002785740481 0.004413499207726453 0.006461101897626719 0.004854576392752627 0.006707393604909841 0.005953894075846582 0.004677630633494695 0.007020001297204042 0.005212487254100107 0.007122643127840909 0.006209977779246157 0.005221613707366547 0.005432769999269714 0.007114547197257453 0.006005582189371915 0.005965113504060877 0.005825851105307704 0.005357304047427921 0.005325177341338026 0.005908309840747188 0.005041294508091805 0.007099770331060215 0.005562648550733173 0.004967746210427523 0.00612126191525906 0.005466923099375237 0.004473252068162284 0.004784777713228603 0.006098136565159253 0.00507759517481824 0.004581299780853961 0.007022528650099189 0.006525121840873199 0.005975920101064412 0.007104319375549097 0.004634654154412195 0.006388601791184684 0.005081612736263071 0.006163689335488397 0.004864632746414692 0.005289858452074863 0.004374786943808693 0.005335594508745091 0.005595116302305288 0.005461269871910208 0.00649088355452544 0.005399991298699306 0.005457275548229657 0.004719032249528059 0.005490271801498697 0.007073319667800029 0.004640591338710962 0.005989045580044215 0.004869588368866092 0.006118244715601091 0.005084541257362638 0.005800334136184481 0.005672157968516931 0.004972140715055505 0.005278280017150992 0.004908691256873566 0.005129919905735564 0.005291245915654524 0.004886917786761069 0.006032874809620031 0.006655171587385092 0.005733441684786914 0.006943904013108839 0.004502521440871607 0.006688940904424059 0.007006882262568037 0.001574124452688207 0.002698099886171864 0.0005885719086620832 -0.004501485705265501 -0.007825853905472465 0.001882782891061763 0.005668100951268872 0.005214898251972135 0.006065531445135097 0.006892942901858791 0.001202922185702854 0.0009090318454043859 -0.006308512441427097 -0.005390510563055451 0.00159649008585948 0.0004432937918909659 0.004383264426485924 0.006514015673173901 0.001987497721269163 0.002584547714133251 -0.003200776346432621 -0.003529564633118785 -0.00311807131891115 -0.01428435249438788 -0.01135896105250097 -0.003300235243404694 0.00528219526453855 0.004838777280481037 0.005808031523453729 -0.002221004382469245 -0.008522872228035005 -0.01361140416969702 -0.01006079656754295 -0.005921962862085904 -0.006748913739019574 -0.002057951844036967 -0.002759579508699116 0.0003562812099888489 -0.00436483823536532 -0.005599127818920883 -0.0003669484019319633 0.006324805662942355 0.0006703893869879902 -0.01066129325157322 -0.0007919311668374743 -0.002835788440523658 -0.001971740516505956 0.006246728013107729 -0.009573978176848422 -0.01265335003947697 -0.00109190222055093 -0.008357692942654017 -0.01148395542107956 -0.01220053568729663 -0.009611306409568284 -0.01093804230736628 -0.01225401813946165 -0.008450411551159907 -0.02070968558655331 -0.01200004945246754 -0.004633448199552337 -0.006128530782397269 -0.003336360081238856 -0.00951713425488147 -0.001431592192857808 -0.0007348441712188851 -0.001841563760481215 0.006240682535623802 0.007288258127680719 0.007164549898452952 0.01115646219519345 0.004853735396532281 -0.001779595326476749 -0.008180328204804341 -0.01419960407938451 -0.008823356281092216 -0.01289079298432761 -0.01678799615414553 -0.01491599338697955 -0.008155050829955981 -0.006419253923093251 -0.008118285742170536 0.001322343717944682 -0.007898323611213386 -0.005347243596097334 0.007280390512845141 0.00392451626828615 0.0004721291057983379 0.001945094257633349 0.0122102433451095 0.008027004203965109 -0.0005068482316379592 -2.117550022535562e-005 0.006997723850021774 -0.001435380617000657 -0.006057549035264519 0.009450537633198844 -0.003070023738313517 -0.007863677430106351 -0.001984796010526387 0.0009888284708924387 0.003244839610447903 0.01519955438433811 0.001064721312436041 -0.009811017755424548 0.0008711040342750668 0.004316787498300101 -0.002595845698499991 0.006503298733734599 0.02067387576891666 0.02143754163268589 0.007360959322872701 0.007186578381928732 0.01154705251880789 0.006062653036999427 0.01033726849743417 0.01193550437712421 0.0004780223088122078 -0.003308378833616721 0.001294787255124429 0.01559611874724871 0.01625457227424079 0.01852366507336348 -0.003754820759695016 -0.005309698869670009 -0.001470040413943953 0.0009196141156214903 0.005659263171198524 0.002300222635300795 0.01322993025141984 0.01610252317393708 0.01262619580287549 0.01103616711423165 0.01181970344326181 0.01139550688650538 0.008788874759382843 0.007467484518744854 0.002167091540523649 0.004015643937207433 0.00902018105098051 0.006877233229920542 0.006200496640200379 0.007596777914210757 -0.009151338674034374 -0.01302095752666115 0.003093304980691518 0.008039614364973198 0.007349750915984515 0.003710238403957403 0.01527588479140863 0.01302570790538599 0.009260577940302385 0.01018722228586505 0.002283589111768043 0.0133204836152145 0.01261348362996709 0.008019607334664398 0.00140425937942972 0.00637507626287063 0.0003001279086368044 0.0137603110710148 0.01293928060649793 0.02060211212833069 0.00482836235490549 0.003670789267061893 0.009382325213081504 0.00807761491769759 0.00443310803445476 0.006231491995854934 0.01271737250237411 0.005838354989644588 0.01340414374461396 0.005627449516030973 0.001753128650703315 -0.001758737671583186 -0.0008033251529906294 0.008068547196084167 0.001303148108945327 -0.01218568771304883 -0.01134100523718198 -0.01145083803142549 -0.009411545568247952 -0.001106135675937038 -0.0008742573975173034 -0.003909218490004141 0.01160818055304323 0.009526229625080188 0.006513670060100227 0.009557508491559445 0.001389381250241481 -0.01439406349942563 -0.01675654545577462 -0.01235816739410426 -0.01911725280417187 -0.01309164592362839 -0.00701658959625789 -0.004614800065855258 -0.006675241251687424 -0.009368233560877482 -0.006488319395720676 -0.007374575236286263 0.003267009298028551 0.003614445820579088 -0.001831724898971397 0.001204053418418694 0.01117375583621824 0.007443991870450727 0.004877020781481604 0.005831855993682843 -0.01152514455275346 -0.01295418579868091 -0.01519693414046951 -0.0002859390269892463 -0.0006949077721776788 0.005779454273494305 0.005154520331011891 0.007893600827180301 0.006246388322596769 0.004699606063000829 -0.0002572321053947035 -0.001978107757138201 -0.0086530296368532 -0.01429280379323002 -0.007641770628681591 0.0006084249041808672 0.01077109506840799 0.005646721562472009 0.006319086291962929 0.005742275814631438 -0.01371180511485001 -0.01546630935544067 -0.008894564182223086 0.006262699367908875 0.005052905860278169 0.004820693897789289 0.005511412347456824 0.00667756597214929 0.00363058069863484 0.003622997813725047 0.004450857664488614 0.004677566654472549 -0.008994888225149197 -0.01604710616877854 -0.01476965207649407 -0.003812098291683956 0.005386575640819154 0.004722943809645883 0.006070800998874852 0.005718405108764844 -0.01314258625986622 -0.01342983047688675 -0.008851578399447998 -0.001206051530295409 -0.0004554056606572153 -0.0008301557314951838 -7.830821355544332e-005 -0.0004344054885732767 -0.001346787906266108 -8.340898630857316e-005 0.0001372234088575117 -0.008182594562355611 -0.009091590949676156 -0.02117594779230994 -0.00873137994990834 -1.640414086254144e-005 0.006085336299048882 0.006742870560196001 0.006481000081769456 0.005663795649231667 -0.0004095783931041686 -0.01422560957485963 -0.01508995879494459 -0.009137782006162052 -0.006702930144184232 -0.007531217601643186 -0.008271434032427657 -0.007706808669723197 -0.008273500727946848 -0.002285264208656204 -0.00837256359070877 -0.009286555830464021 -0.01380044948749677 -0.006630779603956707 0.0001279710159854773 0.005230499722099524 0.006738245373562071 0.005479734085405097 0.005408253466924612 0.005432749040705847 0.004475889632239874 0.005531369549767698 -0.0005359561545081829 -0.007298978465541712 -0.00702702859070762 -0.008503373632081764 -0.00700576099751444 -0.007606215765453448 -0.008035534899068582 -0.006746096553054757 -0.007248185400031398 -0.008612803544646674 0.0005280786154109243 -0.001780845587150736 0.00640545175196687 0.005271027988033338 0.005222097128954283 0.005005627645096949 0.006666412502122548 0.004700275400544135 0.004884699638787062 0.005307550201679791 0.004494379526885733 0.006308662122869164 0.005797616683482787 0.005789740967378438 0.006843447953148231 0.005340072899053797 0.007104214973284788 0.005806250025119668 0.007067940537853573 0.006077614156347787 0.005044497339973286 0.006051507694447385 0.005972473037204919 0.006030744737320142 0.006711509707187185 0.004454948819637511
 0.04244000493357617 0.008894611816153485 0.006808310378618216 0.007807007962796837 0.008947228122732857 0.007165158550562493 0.006436432348403188 0.008361601838839059 0.008172524448784347 0.008408761167658638 0.008980529557905738 0.007200377435097685 0.007997904196973729 0.007252155856933987 0.006981603026774651 0.0085151488364845 0.007583800629171044 0.006500337835096744 0.009003321962022699 0.006951376478480719 0.008128406374589895 0.007726454055808406 0.006596796609649683 0.009138647668145572 0.00845085207370422 0.009195574085889186 0.00771248782447993 0.008650799021166855 0.007605940488389307 0.008498027141156377 0.008204985595138777 0.007545470748520897 0.00874674843451099 0.007891273520831802 0.008674447214536326 0.006749502148020167 0.006574760191518928 0.006906226075605786 0.007234076335596949 0.007821234789422612 0.006903077379848319 0.008308548794476168 0.007606139677571439 0.006667908320304696 0.00658741908026108 0.008768532471023509 0.008672351826401279 0.00655960407631118 0.007671886453514206 0.008257107032506646 0.007696901588289781 0.008466262509528302 0.008612334984850544 0.00643007998312073 0.007562683082355409 0.006574310227852425 0.006660807843343248 0.009026937853833128 0.008310365198982891 0.007917262487998416 0.007049984242400259 0.008752820268144465 0.008634664884699149 0.007852939039632842 0.007795973090277083 0.009155964139511625 0.008508912546877922 0.007037950187478002 0.006791906743015262 0.008491389251292636 0.009192444081635963 0.008900146725286297 0.007805894080457428 0.006774079966360503 0.006007923404044935 0.003958661861953768 0.005118709529759012 0.004474910795281597 0.008093772838441454 0.005391879465284789 0.00669622441220924 0.007866354628882731 0.008927084434691656 0.007353410051440873 0.003010641047754243 0.004713253985276276 0.004270872740811298 0.004752956165795332 0.004900612208016965 0.005008145039563992 0.007929331022674773 0.007840248190921089 0.004680294239379098 0.003587914916260561 -0.002333737643329182 -0.00690332256675167 -0.003943624096705273 0.0001276477681997664 0.003244449788573605 -0.001384433635787371 0.008872365977833415 0.008255644910058113 0.00883977259416594 -0.001441570593059552 -0.002946342530609423 -0.008190523938099903 0.001191825541221621 -0.0001152585730716716 0.0001508416857944365 -0.004816940199374821 0.001687841534646754 0.003381458468940496 -0.0002901814784988168 -0.003027867991304678 0.00158075294677505 0.005746971182327631 -0.01034893178216456 -0.00542087163844125 0.004733876930705346 -0.002535597618431055 0.0006000462029716871 0.007645948507807438 -0.008544167832199096 -0.01069023196554157 -0.008666205526575915 0.0007616741041903528 -0.000746370628425666 -0.007892267541037156 -0.01512006473143473 -0.0128373526286399 -0.01826007113078292 0.0009872199609207951 0.0124571320302764 0.02014353727775554 0.02778360220429063 0.02672963032568731 0.02590577488759596 0.007954449344203677 -0.006425486687209021 -0.003609284844735846 -0.0005894371270063482 0.00407230655971518 -0.01576697180176975 -0.01182862102370997 0.008933149859739829 0.01571018490430367 0.01975190794504902 0.003804928035464777 -0.01310597605119494 -0.02239010476400018 -0.02541786454112062 0.006544717088539353 0.02443411037660313 0.02367678600213567 0.02397185482093349 0.02296365551559162 0.03736826616055416 0.02831320542483401 0.002495806203631825 0.01290548216460575 0.005106255884101073 0.0009277215880406736 -0.0008970743735525509 0.006034996679481137 0.02418432381397196 0.01828523003482697 0.02307970107930924 0.01409212564344571 -0.004471374853673478 -0.02218259473262662 -0.01432844436431363 0.01295261704994883 0.01554181741889671 0.02146077928817407 0.01699164124116052 0.02907098026608381 0.03314294975424889 0.01309118843736354 0.00348274724229957 0.004670577593846427 0.007148630747235319 -0.001539551188287022 -0.01266353412240928 0.001706578646453537 0.02927777902782983 0.0226323562225083 0.01384143618008746 0.01782691691054242 -0.008058636484961171 -0.01342953811747987 -0.003730471409954272 0.00900747296454852 0.01721334149515085 0.01375232873039397 0.02240010074946595 0.02067084465559654 0.01697496300638234 0.01376544392956672 0.008194669730906044 0.008878621018702947 -0.0004532798982264179 -0.002365342739596129 -0.01715109065217773 -0.01262859948270962 0.01264208300136001 0.004712084482537461 0.002225136268874504 0.003469594324710326 -0.01342420329090394 -0.02737884876830088 -0.01528100208219218 0.0004385894001981081 0.01804027607348893 0.006290265679508788 0.003997009754550402 0.004516403244385328 0.003244410925919455 -0.001241812085684286 0.00490876992871369 0.0119375638673567 0.01105734091492843 0.004861843236896404 -0.009811871675661615 -0.01221330939052398 0.009251676514120254 -0.002417211845536962 -0.003665906748608844 -0.006026329230488288 -0.007652308265470785 -0.02064210166357754 -0.01729999903635842 0.001265624175106846 0.01582225367951705 0.003364318517127799 -0.008003079235979779 -0.007336392221619599 -0.01210167064922852 0.004877541487349629 0.007341276275485881 0.008335533977177288 0.01209200742799878 0.008152503082668032 -0.007106519196042294 -0.009368210911369397 0.01068388899960174 0.01946685207277547 0.0209325084623743 0.01651901363585105 0.00995570664077349 0.001098648830409553 -0.01267163490892459 -0.009862470580854829 0.005576726801635961 0.0006744212156162391 0.001200690157762476 -0.001054795458920331 0.008327613479985018 0.01988881419548691 0.01248365108781743 0.01398574827883596 0.009486937749063045 0.01010467679639444 -0.00351593683678929 -0.006704651480801284 0.009344211248129548 0.007502240220569619 0.006659410457726652 0.008891218589010286 0.007570931172041147 0.006070107213100646 -0.002658686697927934 0.008226835246385364 0.00937304081669936 0.006434800322232987 0.006605925705291773 0.008139875584628059 0.01609266514213154 0.01316634664725872 0.01074401357311083 0.01785216244050483 0.01351539866062003 0.00842976802058517 -0.004119829878081289 -6.748607587784444e-006 0.01225910995324858 0.01212503770271776 0.008587309440615701 0.009925098956965106 0.00646226759139349 0.002469258658777151 0.003290609593665118 0.006353951391415006 0.005859371076702371 0.003912541605932121 0.00388376647069638 0.005360130953749784 0.005626330876003194 0.007044613883287157 0.009568830658730687 0.01681616858458825 0.008966508981387795 0.007146859177266138 0.006462515762880061 0.01024675493171184 0.01046594364376573 0.01071210367011422 0.009103447373314406 0.006838447312115472 0.008233960082891361 0.007327735349100609 0.008718961229447689 0.01240021556585317 0.01034598816845491 0.01262821956852919 0.01143829817605856 0.01444646570540826 0.01653835348206642 0.01584116281225436 0.01106124934052193 0.007996589790806164 0.007582248773601847 0.006539983558545273 0.007162837538171405 0.01215353140619231 0.01160247614297887 0.01124431726589043 0.007521962670407865 0.00788499539278225 0.01017500432916369 0.008138378421783072 0.009957647146365257 0.008456408906690836 0.009589104940906638 0.01012492039609579 0.01054774908122385 0.00962856702076169 0.01322807453552074 0.01017301231625459 0.009316690514244363 0.008874727903934459 0.006631727731049708 0.0075180815178399 0.008344359720902491 0.00895096123664366 0.01263663786112065 0.01227875185316553 0.01082226269841063 0.01117050802179358 0.01117843229240454 0.01168601267093333 0.01065147043781206 0.01173534946643632 0.01033633497642321 0.01157350338834456 0.01079161895804424 0.01378389624582508 0.01040996485345378 0.009125090652680516 0.009101825482919894 0.007255301375127677 0.008125213220535046 0.007803665654585755 0.007361647720095546 0.007496255577314503 0.007640195972384199 0.008281428151316578 0.01106421343780321 0.01057819088100891 0.01040831185862432 0.01040057107500748 0.01100884033325213 0.0118681199264025 0.01152732133745451 0.01004772950562335 0.01105615406327809 0.00863641402600965 0.008085281910762805 0.009013228110410413 0.008476126326617522 0.006998776532756527 0.006910869027835239 0.008386215701607526 0.00662557244547411 0.006436186958189053 0.007182687588048186 0.006637511192162554 0.00727305605458221 0.008450569680119336 0.008404542318294283 0.008859144366936158 0.008307640345656389 0.008497061349843422 0.007823581390948093 0.00817819762947674 0.008479346375515642 0.007713401676588145 0.007077426469448886 0.00747180134285543 0.007783772343247624 0.008707610995956849 0.008503107055160964
 0.1017400259747301 -0.003726635699352771 -0.003544540145374683 -0.002741234681933716 -0.004573391963170995 -0.004484454172368623 -0.002930318804325534 -0.005416325814273994 -0.004867059952917714 -0.00411339840128383 -0.003787723334005887 -0.004331005135791607 -0.004109574925144084 -0.005088590062276623 -0.004195399357844919 -0.004741870172699401 -0.003654025740099007 -0.003417934905544433 -0.005407040630857368 -0.003912318563451304 -0.005180119452842589 -0.002706913671941348 -0.004692719228406484 -0.002943052875206428 -0.003148466873295728 -0.003213650092247037 -0.00410438041967828 -0.005375168593366658 -0.004016362500885141 -0.002771906956679261 -0.002963950029564677 -0.003124582971575175 -0.003741574327894106 -0.00361327382856179 -0.003496480772321747 -0.004206484158917737 -0.005352275813159124 -0.002991424992147327 -0.003493468598583468 -0.003290846615837016 -0.003849884302995531 -0.004735157116613157 -0.005006345378290308 -0.002859991539211098 -0.004220379997166878 -0.004420664677102912 -0.004560871405054102 -0.004372331589344781 -0.005145099333462379 -0.003493590483179666 -0.003793553758865567 -0.002874111642740262 -0.004133837147083596 -0.003877788053670064 -0.003435902662488595 -0.005023487384431842 -0.002922255723509007 -0.002744822155828491 -0.005365632709586217 -0.003902092668930921 -0.004561110259655446 -0.004253490976763369 -0.004932005836168584 -0.00356994731978773 -0.004318912079863049 -0.004620767360785286 -0.004472818422611289 -0.004868637777010455 -0.00293320672660501 -0.003905447135275042 -0.00488925543383178 -0.003819768410857528 -0.002821130914592376 -0.005261286228491715 0.0007718694269362448 0.00149322445493147 0.02628714654261116 -0.002133068248934141 -0.0240798297440605 0.02637912229078087 -0.005033772377961873 -0.003086432324466567 -0.005388191220134977 -0.003010328878541333 0.02506231842633167 0.02542164960808016 -0.001942003943370461 -0.003264377838838661 0.02391846190141286 0.02486031634112821 -0.003633737386177481 -0.003181787361632566 0.02550595848498078 -0.01484991662422158 0.1076554436042083 0.07710518136223925 0.02264779086442057 -0.0006213266530648584 0.046954333516744 0.0937911171677047 -0.005181288357052234 -0.003003353486582627 -0.003259154225758544 0.1174483557533406 0.1054202450570397 0.1667082585987916 0.116401505355501 0.1444320112457534 0.09010793576486864 0.1112940880909345 0.0866029189291536 0.02582402934960322 0.08627520356021502 0.1715761608522818 0.1027187141308409 -0.0155787416817987 -0.04570444690388198 -0.06021421782707323 -0.08733706321467392 0.09569615062471765 0.0852118481973395 -0.002955967818847611 0.07359481301296633 0.01281602287849902 -0.08468913563550645 -0.08530316604702998 -0.07649750827004374 -0.01157260761280095 0.06065812096084674 0.1214189112129105 0.08290113944431013 0.1031603169035103 0.2361595803602526 0.2025202626765407 0.05766394091237749 0.05805011010411573 -0.05546144931464388 -0.1117352951283932 -0.08765507556770881 0.104979806514771 0.0865421839120195 0.01103534474904709 -0.01235310943968972 -0.2089188494951712 -0.1773413288596909 -0.1704316334996611 -0.1245018380752473 0.0138726857657357 0.08214500911798589 -0.03111158654927192 -0.04750322218326282 0.07113532440126082 0.287122637111802 0.1349395092662208 0.1360827152414959 0.1252021366494082 0.02404991452948574 0.07295587661744046 0.03310226596313746 0.03212412212568641 0.07380191464268046 0.04069531623847733 0.1534360446298972 -0.03321267411016892 0.02614534417512199 0.1568718956178965 0.1713270707880304 0.08238448115431517 0.1341694443678633 0.2193144104377315 -0.06415232641459793 0.1063825472886542 0.2332049568271499 0.1534216529563163 0.09555841042425267 -0.01660350266596054 -0.1022899333099936 -0.08460105228863844 0.09821113231765437 0.1793088065523469 0.07295689352067818 0.124621993561501 0.2881116714351525 0.02156216385580371 -0.04127230748956464 0.09622600437862674 0.04396473549621518 0.01872245506469734 0.1454569707498305 0.1808116316938713 0.09213128196517395 0.2160628145591369 0.3245275953657535 0.1544696976601441 0.009811360662872987 0.01281374440760838 -0.04270559906865705 0.05949082248601376 0.06802842121727888 0.2194013236413869 0.09545943964607993 0.05500416765858378 0.2590195270008095 0.1119888171063996 0.04460019666421218 0.09310970943447974 0.1326830302581367 0.09221194912151712 0.02750883821566466 0.0323219833781592 0.126357667148766 0.3320459352408895 0.3582267754169807 0.1604153978616358 0.1283783079894746 0.1093150153870483 0.1277219943613936 0.09976387792473211 0.2520853071049339 0.2269162063240379 -0.01154088016033806 -0.03745529397295428 0.0260865380232773 -0.1507550226172063 -0.09405233620426416 -0.008592370957231782 -0.1145697102309708 -0.1219629254211585 -0.2926799743670436 -0.2861888330701844 -0.214068332719107 -0.005476641034193375 -0.02178143648018595 -0.08553877137315377 -0.2219010425820435 -0.1243278602178592 -0.1925991160420908 0.04005608273861578 0.05155881513933511 0.02106699826921925 -0.01115711702568081 -0.003104661774187881 -0.0002240317431664617 -0.1726446530675309 -0.125043832845384 -0.2186123183836024 -0.2229155691938564 -0.09763490529696534 -0.08479764474755581 -0.09540195710740139 -0.2111093966939875 -0.1062296554309793 0.1042733554180505 0.06946720549028854 0.06809771354948528 0.04018753985889249 0.003307566340714435 0.0764421639517195 0.1293947987612215 -0.05672515944135918 -0.04403235744005628 -0.04024828184053259 -0.08620374697552989 -0.07071030217170321 -0.07580462193505909 -0.03426753870609905 0.02930458023638206 0.002508510597390984 0.03183481522142433 -0.081840305243137 -0.1736197330001656 -0.1122734551888695 -0.04102907672546757 -0.08255630426298206 -0.08289040902572603 -0.0646517376584633 -0.1197230895312588 -0.03872996770855234 0.01088792360700112 -0.02294319959009659 -0.009980640118253371 -0.00422496719306204 -0.05187917417955822 -0.1322845576170444 -0.08702828295676952 -0.08392466622682759 -0.02974868586196653 -0.03130736746477608 -0.003509960601255841 -0.03128037118352708 -0.0693222909168969 -0.03522164541315464 0.002843424582542284 -0.0593203908695395 -0.05719143786403717 -0.08204165290718199 -0.1118153545887016 -0.003787868196941018 0.01076740120008596 -0.02330051160170348 -0.003772206825704292 -0.004384383858159096 -0.004483083338122375 -0.08706916676855606 -0.08775242194785678 -0.06032120793800196 -0.002688601574614214 -0.003157136631816967 -0.002676123312121145 -0.002934353767482169 -0.00388681903734033 0.0793836597725243 0.07869278365355924 0.07937238771341111 0.07859805365513101 0.02081789973485959 -0.003038692181059335 -0.004929059630240802 0.05021748047855859 -0.004452394977130779 -0.004639534495773313 -0.002677517794763491 -0.003058059054729244 -0.08596151097207012 -0.08965461416119327 -0.06129309348708148 -0.03583140372063403 -0.0351789454116697 -0.03476416162061693 -0.03585588444776467 -0.03461189971081215 -0.03338235301314418 -0.03517512029808775 -0.03511559861551342 -0.06057859633801811 -0.06183060050162859 -0.1123368199442032 -0.05537558463962697 -0.03251984767472308 -0.003861694266781639 -0.005287535561968724 -0.005398454525467603 -0.003652332687892498 -0.02830478739946365 -0.08227217104418531 -0.08148945301325811 -0.05840966103757105 -0.05712787077634088 -0.06041427772917494 -0.06267528993440605 -0.0619383447033872 -0.06217689003607422 -0.03179204854636652 -0.0553675427337975 -0.05447819831896018 -0.083522719506283 -0.05699952829706225 -0.03160089228454844 -0.005216109704368987 -0.004959775547112966 -0.003819396799678136 -0.003708181332252193 -0.004554990184374885 -0.003236792240465276 -0.004665383803950892 -0.02903403175200721 -0.05464473717355844 -0.05688224047171554 -0.05481004802913744 -0.05644566779666838 -0.05480481249776423 -0.05489058961057435 -0.05611034702956286 -0.05540427107015643 -0.05574391999378786 -0.03028053025601157 -0.03147008584493154 -0.004159169014813119 -0.004004765214219342 -0.00529637216504327 -0.004255224093037931 -0.004679196039752071 -0.00352268226206885 -0.002834659227050849 -0.00537986800749371 -0.002843521624203487 -0.004712892113338668 -0.004981075318164572 -0.004923975414534675 -0.00508652630038694 -0.003482551515030732 -0.004077482028808376 -0.00374166323331835 -0.004993573453413183 -0.004530465631214118 -0.002940490301864995 -0.004804363415561463 -0.003705262140249287 -0.00270182102078844 -0.004304341114024351 -0.004029694006463666
 0.02753033734753258 0.009817638203474028 0.01099925556949978 0.01092751844751744 0.009808303152261433 0.01139070676093152 0.01061050975326129 0.01113789608739272 0.008722237013039215 0.008889464666842416 0.008824415630928279 0.01037929263066654 0.009486839733278891 0.009654011513074169 0.01058250024077042 0.01136390856573074 0.01124230918616855 0.01000457777868528 0.008886667172888519 0.01064467509526734 0.01122600658644315 0.01025930177632577 0.01017718042037692 0.009173211183133632 0.009191004996655235 0.01084640873508181 0.009503428202237955 0.01068758231859076 0.01031698212659909 0.008767114529280294 0.01080929852061504 0.009181634047275204 0.01083722400512369 0.01120397415735242 0.008648972252264556 0.008819244914015216 0.01046937518781035 0.008916662973513838 0.009507733355529631 0.009934325437244082 0.009691013260609484 0.009623217552141107 0.009387555587736057 0.01081576853259101 0.0111029325813088 0.01066539552300575 0.01066361271501512 0.01125632941086276 0.01107599221619845 0.01107075600811484 0.01008030038657353 0.009369664076174507 0.009107661169726373 0.00904855792164261 0.01127231982519615 0.01005475632380392 0.01084202583059456 0.009215859810929499 0.00912258694492039 0.01048463501589502 0.01088292451741293 0.009165251766506961 0.009782520344667802 0.008812698342191711 0.009626639595548117 0.009361587781149242 0.009121862054372978 0.009265707725521833 0.008693568413023073 0.01085613843574021 0.009704413800567128 0.009459435922121257 0.008975799016348101 0.0100923300476312 0.01012148028437124 0.008386041706051683 0.008432073291432208 0.006097500862808673 0.003452011074211707 0.009332685052444981 0.01079317456647344 0.01128866011317102 0.009924928357807086 0.0102171166513982 0.008423894335763881 0.008022208777959226 0.005735608992501203 0.005523281056947448 0.008969266349557048 0.008963704601389745 0.01051093219089877 0.009807044266121947 0.008700155213084882 0.008433101509631447 0.006649935051236159 0.004948412521725749 0.0004294051779772858 -0.006825266955789088 -5.10333605348347e-005 0.002938049024622918 0.01114237820300088 0.0109984123159019 0.01029069844340203 0.006400298415942591 0.001879332901044754 -0.0001854215152155978 -0.001748716942566435 0.000980618997223604 -0.001481917749791296 0.001504041379000885 0.007269701157848327 0.007540476837220361 0.006351451265663195 0.005378669977517846 0.007860671912916964 0.01017055839587937 -0.0003525847276547715 -0.008473741729227609 0.0002052265314537555 0.004433476152413479 0.005379349804559144 0.01112008284175524 -0.002532592108835564 -0.0008593288152922451 -0.003754871663672149 -0.006603597774299652 -0.008287531724192878 -0.008738956030223267 -0.008454352035838228 -0.01083754104605046 -0.007231585297928516 0.002757311308587765 0.004214529740564278 0.009003021964778105 0.01196278691092698 0.01264193808379209 0.01025163240512849 -0.003616194284064037 -0.008964503806073268 0.001916775485993129 0.005459285082664677 0.007458069798014568 0.0006067415802759218 -0.002058056753338039 0.01249629463759651 0.005578471995348495 0.005186104213722047 0.001615575797490865 -0.01414064595517104 -0.01729096356959826 -0.01054624808627614 0.004029589178774598 0.007207377185330426 0.007415256149075396 0.006720690908575277 0.007315289607603438 0.014606364484486 0.004766490998215539 -0.0009973998517049804 0.01537057862304353 0.01177430397920575 0.007472522807319104 -0.001371327986024331 0.005582086746553714 0.01096666833640433 0.001761567865512996 0.008425517371478571 0.01170322723639744 0.0009603751660363137 -0.01063982779351667 0.0008476929380555186 0.01628018406250189 0.007645375498187777 0.009972648917426812 0.01081342544370041 0.01389243401857117 0.01765568976576287 0.002611248793959159 -0.006436307868410675 0.009911327537896114 0.01122907211501584 0.006055679084818063 0.003583226970752565 0.01748407352251681 0.0248207505968797 0.01590420729533986 0.009332142346186607 0.01595461704080085 0.004793617692363172 0.001255521236171332 0.01354858740476834 0.01113175573223761 0.01170807070655811 0.009484246009630814 0.01906608264891461 0.01777505533554616 0.01673908066734723 -0.004771110427355696 -0.002685442041512887 0.009792074666897417 0.005635369858280105 0.003883083775580362 -0.000993801444343039 0.008519362947019458 0.01826877475278434 0.01080730118667668 0.008519866590015121 0.00962899245417843 0.0008653306082241919 -0.004815503868160393 0.00304432836233483 0.004917407271358285 0.01199627574842429 0.01004073406750356 0.00805910085380921 0.009947913588961297 0.01222308007157503 -0.006603404594395977 -0.0021166297606159 0.01089020913767696 0.01433536224050809 0.009267726274100118 0.004828892669436838 0.009494436262869541 0.02261764280863518 0.01573044225954682 0.0177470328877204 0.00862472350909534 0.01371003084589662 0.01285118704134254 0.01342885963598071 0.01751233454916854 0.02236768152663089 0.0120540099500762 0.01217446519334121 0.01535648922108323 0.01423320765317892 0.003110219042028405 0.00935631573948547 0.01686543051435727 0.01350048438729593 0.01052917142412019 0.005123670145699968 0.00848210875393208 0.01957468234026263 0.02699043173287275 0.02183784067298775 0.0196914636007311 0.01581071844193381 0.009891788647287495 0.006969746631829601 0.005020368094882588 -0.0002247821282312648 -0.001301673549506124 -0.001855721422435574 0.0009346195676562818 0.005900660351699494 0.006632540920708327 0.006524468219908605 0.01823922878539213 0.01424498572948055 0.01140983329511663 0.006349701921303352 0.003886206145123138 0.003648620558846061 0.002596560080406646 0.004153231520022455 0.0001491418562847948 0.004264938026645254 0.002210807997455235 -0.0004991650431652222 0.00400494084632327 0.003674927799662464 0.004060458578141414 0.002309651882573236 0.00977888476989075 0.0095778456041539 0.006718276825511165 0.008257489322625594 0.01753786120248026 0.0135996037403963 0.009836625260469396 0.003118725870669079 -0.003371320705582945 0.001317451511212666 0.002672365743402703 0.008080251144599726 0.006280369428781108 0.01018455066318562 0.008198401090101726 0.008338423610374027 0.009522458574968733 0.008579179883524825 0.003198078730530905 0.003595047100746654 0.002924835431551525 -0.002129384723169097 0.002395549496282302 0.007121532882602084 0.01978404133251532 0.01002165981627763 0.009575667872955197 0.008896491646509417 0.001943587938276045 0.00182965812972433 0.003648063888465856 0.009926456865241054 0.009064602568501324 0.009768661343625482 0.009876772101393448 0.009981323508097469 0.01002122946725274 0.01105246699706807 0.009608612187249378 0.008785666848086321 0.005045911721023784 0.002323228041532659 0.002366678075384625 0.006157234727363441 0.009281582451538092 0.01039277088052554 0.01007696138432683 0.008755654097912688 0.001972719178202395 0.002930340349488796 0.004968362193091757 0.007821007371140233 0.00854608028744186 0.00864078406472675 0.007398571586084236 0.007292158709658267 0.006899239973805282 0.006906969840056275 0.007275796210933234 0.003509008841208271 0.003561040764608411 -0.0009753446980610846 0.005303859213529583 0.006479090683161197 0.01099792345689609 0.009095679333160796 0.009719075352880727 0.008690993348725822 0.007844611008051313 0.002708597077254158 0.002486915613922819 0.004403723389294798 0.004604168900365711 0.004968269023456845 0.004276549246206848 0.00542687214439801 0.005657411526549572 0.008114355655237344 0.004091957441823485 0.004077812450410927 0.002283336705306397 0.005976230426650026 0.005983956644620163 0.009083570949699089 0.01014523422641568 0.01135093136889596 0.008716418938478958 0.009992853837204271 0.010786800686694 0.00922042162193594 0.008332204304762315 0.004361147796359459 0.005031774516794956 0.004084191575568052 0.003720517196822434 0.005324426662071664 0.004678156158274592 0.003642258686187887 0.005501435358029305 0.005746944085269944 0.00783520894293549 0.006093512550632933 0.01021760459911424 0.008859723486881939 0.009281294548116024 0.01126663485768533 0.009951900629597573 0.009510041330091082 0.009212838246345801 0.009385177957097325 0.01047340860359153 0.009773026740444864 0.009790000364477983 0.009524071754770125 0.01046100044656532 0.008959700960027251 0.01007627818867903 0.008764572703054781 0.009601837681781569 0.0110341903095806 0.009937449339975079 0.01093777052740578 0.01048240193507243 0.008797902906476389 0.01095050272944691 0.01079884203655315
 0.01086244256514893 -0.005882024737879826 -0.006899457334042679 -0.00629517642610342 -0.007759127486618463 -0.006396612416058021 -0.005473665266199529 -0.007858349518918362 -0.005918089203120144 -0.005913510794108171 -0.006236089433047098 -0.006281164670189658 -0.007523599377904238 -0.007065446855600793 -0.005474923597586073 -0.007588471492688837 -0.007640949583139323 -0.00610597765639138 -0.005808774327005891 -0.006980505528846264 -0.005543792180580685 -0.006635637336697972 -0.006324798611806962 -0.008156470081339713 -0.007459833311113177 -0.007599392421350282 -0.006839650441161626 -0.007247908775760281 -0.006867796165319727 -0.007322609577590684 -0.007136471532515353 -0.007796423704147485 -0.00542553513700366 -0.00789552577924695 -0.006416298441796903 -0.005858079703822633 -0.008126164265051448 -0.006713981825103232 -0.005962332103401383 -0.005718617526905336 -0.006465874874752415 -0.007518009510386105 -0.006048983230858033 -0.006867355969009186 -0.006912856100694345 -0.006797594199693908 -0.006776457042633428 -0.005626794391698303 -0.006908308390909143 -0.007271121383869895 -0.007520748531085606 -0.00592144565294429 -0.007743308206157328 -0.005433448416728185 -0.006350358779140983 -0.006803482467125603 -0.007885382464954925 -0.007264037021834129 -0.007938556739418332 -0.005774872381527734 -0.007650303408079744 -0.008049071208340476 -0.007766444784793344 -0.006772000077898915 -0.007436505663936306 -0.006134658395648951 -0.00659734077833597 -0.007091606147958565 -0.007670515082678006 -0.005859826356197952 -0.006653745797844899 -0.007701375303986959 -0.0054624289016308 -0.005612616957316194 -0.02712363238733907 -0.02732323303913749 -0.0007805889803638891 0.007093340357112891 0.05584680953262079 0.001007508406036298 -0.007076797413017982 -0.006785630955388719 -0.007667003935209379 -0.006444906144512902 -0.0006692796458291785 -7.100661473815272e-005 0.008322919459876316 0.007336901243544226 0.001273814493215696 0.001402599032013457 -0.006731698421215253 -0.007181370025606731 0.001329771320219866 -0.009069280102831289 -0.04022953879204486 0.002182463274261599 0.09381621554789868 0.1785785891057238 0.08887479564571142 0.03265010683004081 -0.006913004839516417 -0.007137305414384135 -0.00614084217274118 0.02907398367828698 0.06576864622029399 0.06776033627606656 0.107901567889842 0.1003717209366522 0.1083933478272222 0.060761733731724 0.0009755092125686223 0.0004277888099135003 0.000903011281768434 -0.001239863528433112 -0.01747486379174125 -0.07093046677848774 0.1014515273780305 0.2146586489601965 0.1218302257099563 0.03089847449412186 0.0008406230696529679 -0.006858805305842578 0.148608611931053 0.08095712556733899 0.1450705947740028 0.2289685668832737 0.2558094696670268 0.2036522199404524 0.08227620358833584 -0.006720243901925096 -0.1399308881349024 -0.1941337661612499 -0.119530469774788 -0.1260053972840309 -0.1249718973483038 -0.12283364822971 -0.09108521023725644 0.08713897745407481 0.1088662876837642 0.05952089615632243 0.0004987061910718001 0.02270488522063713 0.1913027239279653 0.2175219306281021 0.04786479647128724 0.2215383048447366 0.06386310466286897 -0.06555615996809216 -0.09476152829491735 -0.01735656779673395 0.03868527320485198 -0.2002455085606602 -0.1469012706271692 -0.01119094415437638 -0.01105498350615902 0.02350355130689102 0.1328150364960052 0.08990273019771117 0.1138136125344752 0.059423487200046 0.06053190625858629 0.02883636557395835 0.1793600391820593 0.1222114268523916 -0.1433653124031463 -0.1209241531649003 -0.1162901497110207 0.05473951610535854 0.02320423514808479 0.1611992248516515 0.1101094482958693 -0.3186786214062802 -0.136013469626784 -0.02380570906181692 0.03240485370428098 0.1017386942721431 0.1821409719953959 0.2244786293979788 0.01970272052795042 0.07820652591053776 0.06028592535099606 0.02635645575419459 0.07248709247900437 -0.1186526977584677 -0.2223575878112378 -0.1627009309875215 -0.04691273973248635 0.04886277377205117 0.2657628353154351 0.3046002432064921 0.0004986081765943509 -0.3466578676863394 -0.1687237969747886 0.02232279998535684 0.1209179044570333 0.08716176819709076 0.1619674131513061 0.1220096387703018 -0.03561119032002173 0.02165829216390694 0.05244661206923065 0.09764556932918043 0.04476808414255937 0.09857690491045829 -0.007359356744692601 0.1139250934611868 0.1721731255438254 0.1639841544003123 0.3276643399882194 0.2707142529848255 -0.002525404932321737 -0.2984580738832445 -0.1443934934027821 0.0919266403634799 -0.02161200745955831 -0.08673554177248559 -0.1017854558954797 -0.003288580949450883 -0.1804919193756704 -0.05431300075071661 0.03215502050708584 -0.03112740817742135 -0.03626888925172251 -0.01225694311904646 -0.1434145322063594 -0.0433430561735697 -0.211021195957791 -0.1971132428176753 -0.2262820694859699 -0.1394513083870979 -0.2047910465320308 -0.4658440328153635 -0.4518184136079204 -0.4367576385802718 -0.3092990446171109 -0.3081215696575558 -0.07044272786308453 -0.2202864675075947 -0.2839794615040743 -0.1092348916133454 0.03283641468277877 -0.006876742783693232 0.004425311799663103 -0.06611515867864756 -0.223220310487356 -0.202220493954062 -0.1661299826438585 -0.1392721713967598 -0.02695662210944168 0.04527876669027833 -0.02992563958591262 -0.2393472684393917 -0.1626934524440562 -0.04321445790570823 -0.04261891881799587 0.006597390302481809 0.01505566667337751 -0.08824223626204139 -0.1399117106264786 0.04521919713806254 0.008486747891207876 -0.1109357762286261 -0.01464122014647126 0.04723548830052138 -0.03841522279053745 -0.0298421908031099 0.02396668504109884 0.03142176333010831 0.02427174037108971 0.05758261957486766 0.0187494539577642 -0.1557577121504164 -0.07252239902922339 0.02149468601515692 0.0210912556533798 0.0196955992764612 0.1698518140377166 0.08688434333875777 -0.000479254181967951 0.0688036309927358 0.03244141407598405 -0.005582940599229709 0.09059030659926046 0.1534821624434707 0.05673635214181568 0.01196228492373023 0.0003278432609440435 -0.001384995609378512 -0.006640425063722961 0.04754221690219176 -0.01303528889011278 -0.1335269066622843 -0.07521396795116705 0.05244607838025808 0.05293438111180047 0.05882130801961108 0.1074525009135556 0.008852560227343176 -0.000959811221612779 0.06970890435831222 -0.00774639122332305 -0.008101005416902269 -0.005967273979650976 0.05560787140662148 0.05749628520443643 0.05036348435092877 -0.00758470909743073 -0.007059030210308393 -0.005763229388102746 -0.005494768129120023 -0.006080853345523285 -0.09895969787173907 -0.1004910743890769 -0.1000856994397948 -0.1004354354978015 -0.04221939110229356 -0.03758793172396788 -0.03674680140658566 -0.09249754657428041 -0.006345517948992979 -0.006629300292293643 -0.005501119313753052 -0.006810715601427331 0.05705462303505138 0.05704700393155235 0.0495768450604225 0.04424629649462679 0.04458158892702786 0.04380871920253289 0.04364601518575124 0.04411387844202438 0.0423028770000943 0.04281096981444497 0.0446991157910348 0.04862176523537202 0.04991330277822622 0.063602470400882 0.006270846759707936 0.002038395096773893 -0.00760508131177404 -0.006287588097707758 -0.007563787652934375 -0.006731972404678024 -0.00233927630872046 0.01294233867972278 0.01122728410913371 0.007177013231054885 0.007928918936163497 0.0506274564936994 0.04825499006652122 0.04910540131984219 0.05052301229814535 -0.001348431296402515 0.005889842734073778 0.005416273155622519 0.01238241676524362 0.007466428507106537 0.00122449956514676 -0.006847442749461993 -0.006071166064398199 -0.005536402469872556 -0.005483767541471322 -0.006539693801670484 -0.008121484319519243 -0.007924505174733591 -7.603365611465521e-005 0.006109900731983821 0.007136038003143858 0.006945220003364789 0.005530033354904782 0.007768461502038832 0.007231210399460532 0.007766213064989179 0.007010095909823389 0.006070982625426609 0.002027972237376341 0.002226409035824946 -0.006373588906124186 -0.007968801701784455 -0.005911419353773362 -0.006270036044691756 -0.007793161609824496 -0.007222952795818754 -0.00712581433967897 -0.006681256327173647 -0.005942497752319916 -0.005705660897325125 -0.005836625051314399 -0.006205843999343154 -0.008040259322384202 -0.00754902606218351 -0.008112088781043586 -0.006672893386654029 -0.006260188859359356 -0.007342730867953022 -0.006517341777082143 -0.005783948746708662 -0.007059056128366024 -0.007728840696180824 -0.005547709018285122 -0.007572580124616026
 0.129365657772326 0.009106112977192621 0.01012823010322018 0.01054877136678937 0.009500073363122811 0.01064625663306904 0.008050365132908952 0.01000377711598571 0.01046998146956612 0.008879982193786299 0.01009816132825694 0.01045510233613629 0.008458621249015775 0.01027474238301181 0.007988478721893684 0.008559405897432711 0.009382121912907698 0.01059609342571329 0.01037886739689146 0.01068107221676561 0.008180209492011866 0.0100158500522286 0.008147418097293671 0.00844044068064796 0.01046778845630285 0.00941006844291801 0.008446401502133204 0.009607723937675849 0.01022270808550529 0.009950580331147608 0.008610927831491481 0.009337159534777973 0.01067489307902953 0.01051419475661807 0.01051098991933174 0.008410911891130484 0.009897881899386507 0.009341672686501412 0.01049734616846851 0.009385964318034417 0.009374979018551995 0.008473465977004085 0.008382287640654278 0.008108703776526656 0.01056049152425009 0.009643398313429358 0.01043449413324534 0.008441039270638124 0.00975785574751838 0.0103215415764897 0.009656986341098839 0.008660216026819795 0.01003559877538115 0.009336985893976019 0.009548954823571472 0.01026956532048584 0.008169808335731235 0.00981259709878343 0.008530690372423102 0.008429449807632761 0.009158361612177439 0.008451044019143981 0.009887848360389676 0.01069764058460713 0.009977886486173466 0.009877995486820354 0.01063023698240968 0.008006436865758249 0.009413486403072619 0.00885545398746725 0.008339987971774874 0.008319362179495389 0.009186367682660289 0.009255223549993093 0.006339472817799346 0.006344201487163055 0.006973426445064289 0.001403661680821153 0.001444596653333636 0.006874967394336681 0.01014893098223358 0.01062297340794242 0.01006351486775941 0.008174019313010253 0.005508513866609518 0.005491906168146459 0.002332437032011428 0.002374813905855835 0.007409719844687167 0.006022082507089658 0.00826130099304289 0.008010353900589373 0.007128358625029769 0.004966348049332004 0.0005663487153455878 -0.001576672652548764 -0.00491065288337872 -0.01105646295750387 -0.005871140710006139 0.001565011937061529 0.00823377881116286 0.008883184601931169 0.007993679184616668 0.002998480600315447 -0.002728543498323631 -0.007285344597654927 -0.006183367001917123 -0.002911362938164954 -0.003964702276862017 0.0004626165382241586 0.001636371784701143 0.005464938316470254 0.003313131591724736 7.928716659199057e-005 0.001871416651868823 0.005516276221171386 -0.006672977872095485 -0.01298138595657651 -0.002004316915733323 0.0004988038122605155 0.002786635511870702 0.00864550916769879 -0.005404829694750854 -0.006873255201289214 -0.006700733509977421 -0.01052582395923499 -0.009712478968665325 -0.0107112828919021 -0.008902748323529953 -0.01103370671383242 -0.009255602797404762 -0.001407817411147822 -0.003594362337126482 0.003018658820958703 0.009615471812145364 0.008620667333956302 0.003668285882221103 -0.009031679544637322 -0.008904512764803854 -0.00112738109466805 0.003906826613005438 0.00684679399945803 -0.001025923361707706 -0.002666300193513299 0.01212714102154431 0.0004106010535182731 0.003539291762474883 -0.001964677158442057 -0.01418181290139403 -0.01604945323324376 -0.01640233754519375 -0.00186884469295082 0.001846917441831386 0.004327903735541246 0.004379388685466504 0.004202967796068284 0.00932229671171989 -0.002696055176268501 -0.006747774074530952 0.008421231968420461 0.007128032558692115 0.004040030686525013 -0.001218275945459822 0.005485147744787425 0.01804906102721409 0.004556068286987291 0.005421873962374472 0.0105672424602435 -0.003545989295159174 -0.01466768533952597 0.001285953673976378 0.01005462286352695 0.004648656980145331 0.008197570239256349 0.006707386527763744 0.01161089970334393 0.01638821645810547 -0.001752693087156235 -0.009448399761280103 0.002773340961819506 0.007112194828758524 0.003443795895305637 6.468943203631454e-005 0.01495795233416116 0.03043511425354171 0.01890563612371465 0.008682566231558693 0.01306047963267543 6.359110623612878e-005 -0.003639666905727186 0.005544714197004016 0.01040450593870648 0.01112603567575536 0.01060547662283081 0.02054151407587837 0.02082427701310768 0.01876046318686568 -0.004138773213958336 -0.0008978925344941461 0.005977722277353647 0.004330166010375069 0.003939787594420584 -0.003129347091888123 0.003218040403885246 0.02055377643651513 0.01241118736388288 0.006557266056254298 0.007369182001504672 -0.0003175416455514825 -0.004127935641843894 -0.00123194300587871 0.005214488579731206 0.01497388471565117 0.009537673608085854 0.009607449974533458 0.01190929654796817 0.01172378723970633 -0.005485836208900836 -0.002840646035214337 0.01059830341990292 0.01300667254010198 0.008610824615715806 0.00165585849783349 0.00919047261683565 0.01888802549430883 0.006589711402895683 0.01163633905169062 0.004384993245553383 0.014582381420623 0.01120919996305544 0.01061371569658265 0.0139978332361437 0.01912261346344941 0.01304198214178695 0.01693492537744227 0.01547362009297878 0.009701039565303054 0.0007144186516387704 0.005246331189319259 0.01044567062704897 0.01238263719993709 0.01054336791301188 0.005214012810755856 0.01160680536380538 0.02024586691342894 0.02562057260610449 0.021415681655094 0.01944366920407031 0.01291419912012056 0.009468217595209881 0.006257507726302546 0.003646289930604974 -0.004052948708279056 -0.008613400270906657 -0.009756300119006406 -0.008191159602828199 -0.003412694000260556 0.001106132374588372 0.00149625052650711 0.01501726216127067 0.01184905819716291 0.01514918278932349 0.009203691597244292 0.002587333823953538 -0.001720072192120506 0.001207781120142943 -0.0004301025303021136 -0.004627516403152639 -0.000121455947735727 -0.001504829592755686 0.0008432306709459608 0.006345820526404109 0.002955268818804311 -0.0005966101253705855 -0.0007151080233434518 0.006205601462549034 0.007478703665325023 0.003966110181302976 0.00698009378755355 0.01708721506495481 0.01324862082258791 0.01002343542579441 0.004660042950079532 -0.007215645765546432 -0.0006437842754476941 -0.001581672456902852 0.006768865915601795 0.005138232221184828 0.008484839257386899 0.007421121339633496 0.009968504922155206 0.014615356841709 0.01021349878972945 0.002861019576023846 0.003380764466974255 0.0001295147148584196 -0.005239619069606159 0.0003444043937988929 0.008258027394567888 0.01775208425883 0.008479403673314833 0.01057711090127259 0.0097430770035754 -0.0009207577994283889 -0.0008606543517061442 0.001220719264130215 0.008775708824156143 0.009965177784292524 0.01036161812397195 0.009505367201308368 0.008160245050000124 0.008748105654712944 0.009072827886695081 0.008618012976842329 0.008463714288282116 0.003056595078547265 -0.0001489039140225371 -0.0004807401748740033 0.006370743356316854 0.008539711650502532 0.01061125576000652 0.01062856184048848 0.009164466346685465 -0.002334906167485883 -0.002375295201095712 0.002003614014482073 0.00550107085515868 0.005973851581248522 0.005705363238321875 0.005657544362761268 0.005186787366085155 0.00456006581363153 0.004739149196111016 0.004605734982217818 0.001272729460278743 0.002760526116332131 -0.006126817060626682 0.003335923847862139 0.004774644495538552 0.009520715064302167 0.0101982998684537 0.007985079531187702 0.01049093931931385 0.006725977112954824 -0.0002019319915275689 -0.002383691086471182 0.002539048677415933 0.00228352449676119 0.001024778218691385 0.003053737772168251 0.002625520465366263 0.0009087008085676088 0.006745672598061931 0.003589956190251285 0.003445679695238096 -0.001447071159346403 0.001721495657587191 0.006235624886209834 0.01056428238962846 0.00832625259864159 0.01005449286310587 0.008426835996952495 0.008252153368100458 0.009879681401737681 0.008631966967201575 0.005545480036881683 0.003316333978890283 0.002198454637745418 0.002417092434021756 0.003525973519513882 0.002008638830102071 0.001715272844374235 0.002636149891928546 0.003300446889683502 0.00183700949381525 0.005570385458173816 0.005840801308996313 0.008400087923692004 0.008128918521361789 0.008427274723238419 0.008804383860134081 0.01031997837941563 0.01064354322892728 0.01052687030849377 0.009483336999095669 0.01017311118157703 0.008486388642951459 0.009810700057508816 0.01055750062264205 0.009603342745338781 0.008421356077756901 0.0105659798310247 0.008084695328065789 0.008599996361698423 0.009276501383556953 0.009480573278555329 0.008600696811913715 0.008329025032432399 0.00808614764275023 0.008322546983885083 0.00900523920192913
 0.01380800000576617 0.005072444898291159 0.005093702399799341 0.005068208498488548 0.006946089042613721 0.0061514368573407 0.005503377661826023 0.004649369789270745 0.005007744178956781 0.005917859797214348 0.005142522348029044 0.006255657323777814 0.004799821652002421 0.005740976115596041 0.00465598433695318 0.006374609422459497 0.006695974449703131 0.005188346431671506 0.005041410162568552 0.006452064428191812 0.004290709100330911 0.004258378906339793 0.005024939590183167 0.004373896293040942 0.00458940505602997 0.006282732485882504 0.005727942884271587 0.006891956907892957 0.005137404230489679 0.004995469911953568 0.005085388120739762 0.004812164539985004 0.005089204441701311 0.005902699246590894 0.00545584515790541 0.005427444208875457 0.006687892104294 0.005995223573300375 0.004589425613506549 0.005257185392448479 0.004681577601691795 0.004688992841862734 0.004445292801025191 0.004862904925607629 0.005624712637526091 0.00646930153538223 0.004980254277013284 0.006288487406261995 0.004337244349996622 0.005084915304171343 0.006246724829859463 0.005063577821761757 0.006950223386650087 0.004599544752005393 0.004214141930119356 0.00626517054679946 0.005364222094499666 0.005009667491033825 0.004401952494383196 0.006456867900140284 0.006158759490159068 0.006934690550707247 0.006352616798800991 0.005939255896993122 0.004762050155150175 0.004280451146861841 0.006941721111162334 0.004304822523127843 0.004678708472838048 0.00513021259416006 0.004652173321099321 0.004228368454178064 0.005508809254073382 0.006808481032770451 0.005811441778114751 0.005887588932059331 0.004656513928573868 0.004430459646525539 0.0001767839088971841 0.004844058279395584 0.005502184764487256 0.006052430272180712 0.004184661764708953 0.005792519258542494 0.003351414590016648 0.003204991577058604 0.005944755879037387 0.003700321200321017 0.004802255075367926 0.004051208894584893 0.004620551156929584 0.005179738337047355 0.004694175012901167 0.005092943843481482 0.004643799896609473 0.004181454602894558 0.002531016330269048 -0.003252902328567628 -0.007505562589937039 -0.004349227493872586 0.005809579290898827 0.005117224284123193 0.006027265330916576 -0.001485138936764178 -0.005291063808337083 -0.006739435637092663 -0.01232692396172097 -0.01260595631796411 -0.01210554420152069 -0.007527099766438678 0.001390127126814931 0.00271355757122378 0.0007038765581330632 0.0007185290085654518 0.003775925219426193 0.0109250785674606 0.006560220175450689 -0.003037124910261835 -0.0008023748041795859 -0.003656540511804218 0.0008695727618975512 0.005346202825300947 -0.00268997224205967 0.002183258374288854 0.001942035582471339 0.003973599289152257 0.001753023924432288 0.001590830009944227 0.005492281319114141 -0.003463276060839919 0.005842840161919212 0.009961583655545322 0.001769911922966873 0.004013972234253133 0.008087138343864672 0.008554600853913061 0.01106471578038398 0.008373884763014745 -0.002100508235065826 -0.005566373000577782 0.002362557910481993 0.0004853468563862826 -0.004064412259484012 0.004004022339186061 0.009929423116712612 0.01557739345957194 0.01409619847518413 0.0170865391359382 0.009160058127570838 0.006114151400528635 0.009439640261357591 0.01335332742193643 -0.005155563865963155 -0.0002058712106382432 -0.002570448482005474 -0.002418977754337381 0.0008803658915055609 -0.002054130893542463 -0.001155974644737523 0.001661776638955671 0.0007214964271132487 0.0005178963393787854 -0.01548955839752243 -0.001185011492410673 -0.003957333830620897 -0.01028965628468977 0.00242730917795418 0.00613290946687791 0.002751104371816737 -0.01434579612925607 0.00776146024779032 0.01263299872506792 -0.008880559991083616 -0.003587865527804073 -0.0009632672520539491 -0.002628236908726602 0.0002889622969973238 -0.001630511744181168 -0.00694602864996312 -0.002791756543452512 0.001816533082267486 -0.0008218467652050749 -0.01039759141726249 0.01721149760451792 0.008929998434870835 0.001998307112019791 0.003863844064617791 0.004482602493293067 -0.001274413307960002 -0.009449218594282291 0.01098106099422217 0.005585286918975859 -0.0157880259208553 -0.008972020524991346 0.001264369748912627 0.00101760904028117 -0.001246883270833953 -0.01626348103892729 -0.01156479376775226 -0.01147977182716706 -0.004663476448710722 -0.003944013188093985 -0.01005512804294985 -0.002124604206957627 -0.006395661265580149 -0.008476058292207116 -0.0093246477699323 -0.007555527933328325 -0.008494591919327299 -0.007253188994924154 5.513538530928751e-005 -0.006641879491349329 -0.0236942690689828 -0.01607675869242836 -0.01710686545191257 -0.01235469559871837 -0.007155909576786704 -0.01988840886887709 -0.01943556009521185 -0.008592062661013051 0.008483416922458376 0.009552682884645886 0.00967463824775284 0.0156185709458193 0.01519377405042044 0.02234525990676309 0.0306777736727061 0.03210730890585605 0.0358923492678614 0.03910661651451319 0.03769196055077391 0.03057021260060363 0.02894760883546418 0.02654563612086147 0.02730429387147019 0.02921175768233196 0.03254649269885372 0.01210280624373979 0.01798418459708636 0.02377014721177681 0.007953778652239209 0.006221514307968577 0.005435579813398653 0.0137660646652086 0.01601962724710869 0.02106221355309155 0.01900707442961775 0.0153763676778283 0.01649971935499479 0.01386362351047334 0.02511659593254659 0.02373699739095557 0.007258336053367602 0.01024148728919427 0.01020724078427884 0.01336677710147593 0.01645801749842605 0.002977117724629883 0.007514063648706185 0.01587844373686073 0.01216995710327184 0.005067501403000898 0.00673517700613536 0.009978283596498327 0.01062187889097427 0.008338212090841957 0.00712753102713742 0.008054022615187268 0.006620606218344276 0.009394865616551132 0.01330999667242265 0.01073794808422177 0.004733579490379741 0.01229148999989123 0.01078542658874117 0.01170868436453848 0.01140296565570251 0.005915538098730267 0.00661114371240034 0.01072073028587508 0.009037724934634712 0.004460808241394557 0.006078102816295088 0.01311605762814835 0.01183261818070622 0.007861613587621269 0.0056688087413876 0.006465221249370776 0.005415307333313718 0.00754440979017778 0.00804337580844919 0.005407961564360437 0.003786314179131116 0.006948204897798286 0.006687040748253477 0.008608570408930316 0.01153336835234259 0.007619752356249614 0.00785130334104343 0.01033070304222619 0.004614686401953353 0.004359805289608482 0.005824330533394546 0.01153183964382164 0.01098218254733452 0.008672731927323181 0.005325532684175223 0.00694332460338836 0.004322391139882708 0.005611121020607823 0.00435121555976084 0.003084296676422033 0.00426834019896176 0.004204018281908114 0.003759980620859095 0.007953901296993785 0.007703950546284186 0.007605007589405415 0.002994130941016714 0.004683791914428034 0.005148791465482816 0.005113751344240309 0.005905105571313803 0.01099029586307375 0.01202481603210923 0.01063076077294082 0.007596595149976844 0.007926907481342485 0.009271615500942573 0.009072148292064885 0.009189749060512547 0.008560673068388763 0.008048369159751847 0.009941624192482706 0.008584507118516781 0.01073275802132587 0.0108269662816112 0.008610618955409452 0.005271099360354788 0.005016386994925573 0.005362222340367657 0.00565767614375229 0.004673362254574547 0.007270336553839228 0.009037451460413811 0.00947253973786589 0.008379875255058265 0.007781967040019321 0.01000051198865344 0.0110351851686558 0.009192661258333068 0.01034672452762607 0.007968738105266833 0.006959292618431282 0.008777503040098684 0.008673142514103333 0.00895317816346267 0.007373462990965422 0.004222599274343554 0.006047724391764696 0.004881711831481817 0.00464217496636719 0.005791889959664281 0.004961006127348346 0.004880811861662691 0.008072625272333879 0.006766675481689787 0.006277554106135983 0.006327217888531312 0.006399551498905519 0.006599248688728312 0.006259498853883098 0.008506152590839276 0.008902218015918168 0.008006536890598442 0.006835826514363364 0.005561325723444803 0.006263671117568889 0.00574831185487525 0.005496540019106385 0.006412458111423569 0.004416664824386944 0.005180784864910906 0.005682918001598802 0.005694637845045783 0.006136372992154121 0.006804410169752936 0.005418646932605195 0.005917642226589652 0.006066017887448797 0.004390420394220746 0.006218449911383517 0.006088167914437926 0.005548947560318112 0.00571819089635917 0.004608866406231513 0.004878008603655328 0.0050319751648028 0.004211212502554514 0.006794373182764738 0.004979071401876672
